digraph Tree {
node [shape=box, style="filled, rounded", color="black", fontname=helvetica] ;
edge [fontname=helvetica] ;
0 [label="X_charge <= 4.29\ngini = 0.3\nsamples = 82\nvalue = [23, 101]", fillcolor="#66b3eb"] ;
1 [label="Tet_CSM <= 0.16\ngini = 0.18\nsamples = 68\nvalue = [10, 92]", fillcolor="#4fa8e8"] ;
0 -> 1 [labeldistance=2.5, labelangle=45, headlabel="True"] ;
2 [label="Tetrahedral_Volume <= 3.76\ngini = 0.36\nsamples = 25\nvalue = [9, 29]", fillcolor="#76bbed"] ;
1 -> 2 ;
3 [label="X Electronegativity <= 1.87\ngini = 0.2\nsamples = 7\nvalue = [8, 1]", fillcolor="#e89152"] ;
2 -> 3 ;
4 [label="gini = 0.0\nsamples = 5\nvalue = [7, 0]", fillcolor="#e58139"] ;
3 -> 4 ;
5 [label="gini = 0.5\nsamples = 2\nvalue = [1, 1]", fillcolor="#ffffff"] ;
3 -> 5 ;
6 [label="Tetrahedral_Volume <= 4.25\ngini = 0.07\nsamples = 18\nvalue = [1, 28]", fillcolor="#40a0e6"] ;
2 -> 6 ;
7 [label="gini = 0.0\nsamples = 15\nvalue = [0, 23]", fillcolor="#399de5"] ;
6 -> 7 ;
8 [label="gini = 0.28\nsamples = 3\nvalue = [1, 5]", fillcolor="#61b1ea"] ;
6 -> 8 ;
9 [label="Tetrahedral_Volume <= 3.23\ngini = 0.03\nsamples = 43\nvalue = [1, 63]", fillcolor="#3c9fe5"] ;
1 -> 9 ;
10 [label="Competing_CSM <= 5.67\ngini = 0.28\nsamples = 5\nvalue = [1, 5]", fillcolor="#61b1ea"] ;
9 -> 10 ;
11 [label="gini = 0.0\nsamples = 3\nvalue = [0, 3]", fillcolor="#399de5"] ;
10 -> 11 ;
12 [label="gini = 0.44\nsamples = 2\nvalue = [1, 2]", fillcolor="#9ccef2"] ;
10 -> 12 ;
13 [label="gini = 0.0\nsamples = 38\nvalue = [0, 58]", fillcolor="#399de5"] ;
9 -> 13 ;
14 [label="X Electronegativity <= 1.85\ngini = 0.48\nsamples = 14\nvalue = [13, 9]", fillcolor="#f7d8c2"] ;
0 -> 14 [labeldistance=2.5, labelangle=-45, headlabel="False"] ;
15 [label="Tet_CSM <= 0.7\ngini = 0.4\nsamples = 11\nvalue = [13, 5]", fillcolor="#efb185"] ;
14 -> 15 ;
16 [label="gini = 0.0\nsamples = 7\nvalue = [10, 0]", fillcolor="#e58139"] ;
15 -> 16 ;
17 [label="gini = 0.47\nsamples = 4\nvalue = [3, 5]", fillcolor="#b0d8f5"] ;
15 -> 17 ;
18 [label="gini = 0.0\nsamples = 3\nvalue = [0, 4]", fillcolor="#399de5"] ;
14 -> 18 ;
}